<?xml version="1.0"?>
<opencv_storage>
<cascade>
  <stageType>BOOST</stageType>
  <featureType>LBP</featureType>
  <height>20</height>
  <width>20</width>
  <stageParams>
    <boostType>GAB</boostType>
    <minHitRate>9.9500000476837158e-01</minHitRate>
    <maxFalseAlarm>5.0000000000000000e-01</maxFalseAlarm>
    <weightTrimRate>9.4999999999999996e-01</weightTrimRate>
    <maxDepth>1</maxDepth>
    <maxWeakCount>100</maxWeakCount></stageParams>
  <featureParams>
    <maxCatCount>256</maxCatCount>
    <featSize>1</featSize></featureParams>
  <stageNum>15</stageNum>
  <stages>
    <!-- stage 0 -->
    <_>
      <maxWeakCount>7</maxWeakCount>
      <stageThreshold>-2.1111791133880615e+00</stageThreshold>
      <weakClassifiers>
        <_>
          <internalNodes>
            0 -1 96 -263916816 -167772161 4517969 -547356673 -2621441
            -69207041 -216662017 -1</internalNodes>
          <leafValues>
            -7.7486747503280640e-01 6.0374033451080322e-01</leafValues></_>
        <_>
          <internalNodes>
            0 -1 91 -21569 -4214785 -772398965 -548182 -21825 -16405
            -201908054 -32598</internalNodes>
          <leafValues>
            -5.3263640403747559e-01 5.7440745830535889e-01</leafValues></_>
        <_>
          <internalNodes>
            0 -1 5 -593313662 -22612342 -690433824 -67978 1415627840
            -1721671571 -1989227362 -33</internalNodes>
          <leafValues>
            -5.2989393472671509e-01 4.7243881225585938e-01</leafValues></_>
        <_>
          <internalNodes>
            0 -1 246 804144964 779288493 -268439692 -56688734 1174361940
            -271056899 -824786428 -353173712</internalNodes>
          <leafValues>
            -6.4018100500106812e-01 2.8183645009994507e-01</leafValues></_>
        <_>
          <internalNodes>
            0 -1 52 -285216905 -1364305921 -16777218 -1976635856
            -268730507 1216282415 -4209552 -185140188</internalNodes>
          <leafValues>
            -4.7174674272537231e-01 3.5484081506729126e-01</leafValues></_>
        <_>
          <internalNodes>
            0 -1 131 -287645811 -16993033 -285478913 2023414141
            -184553571 -18874385 -319305473 -2011134908</internalNodes>
          <leafValues>
            -4.6827194094657898e-01 3.4486076235771179e-01</leafValues></_>
        <_>
          <internalNodes>
            0 -1 205 -939071350 -1073678600 -203751430 -750337211
            -54216984 -590219096 -1294469478 -545259521</internalNodes>
          <leafValues>
            -4.4218653440475464e-01 3.3400809764862061e-01</leafValues></_></weakClassifiers></_>
    <!-- stage 1 -->
    <_>
      <maxWeakCount>8</maxWeakCount>
      <stageThreshold>-2.0433678627014160e+00</stageThreshold>
      <weakClassifiers>
        <_>
          <internalNodes>
            0 -1 59 -21569 -20481 603923131 -21825 -16449 -4210689
            -1140872261 -54357</internalNodes>
          <leafValues>
            -6.5953558683395386e-01 6.9515013694763184e-01</leafValues></_>
        <_>
          <internalNodes>
            0 -1 203 1077988556 -715852289 -1730084865 -67108865
            1145062621 -715809793 -33600001 -4097</internalNodes>
          <leafValues>
            -6.3482618331909180e-01 3.7374556064605713e-01</leafValues></_>
        <_>
          <internalNodes>
            0 -1 100 926628663 1073479615 -17089 -4194817 536813439 -1
            -33793 -16459</internalNodes>
          <leafValues>
            -3.9446800947189331e-01 5.1918274164199829e-01</leafValues></_>
        <_>
          <internalNodes>
            0 -1 255 786399063 -1359044737 -130 -289473585 -134774959
            -2049 -263920 -50397292</internalNodes>
          <leafValues>
            -4.6793937683105469e-01 4.0605044364929199e-01</leafValues></_>
        <_>
          <internalNodes>
            0 -1 117 -1052753 -33686547 -1074287700 -1208963424
            -10506257 -2099793 -1614992760 -324228466</internalNodes>
          <leafValues>
            -3.4694659709930420e-01 4.8560613393783569e-01</leafValues></_>
        <_>
          <internalNodes>
            0 -1 50 -285839585 -294060049 -329334946 -1359020034
            -593526955 -131201 -2687180 -17897612</internalNodes>
          <leafValues>
            -4.2909047007560730e-01 3.5728713870048523e-01</leafValues></_>
        <_>
          <internalNodes>
            0 -1 47 1946546512 1414582464 -21569224 -135322247
            1427437188 -989464620 -941500581 -76022273</internalNodes>
          <leafValues>
            -4.6912795305252075e-01 3.0063173174858093e-01</leafValues></_>
        <_>
          <internalNodes>
            0 -1 21 -287315153 -411041793 -356847878 -1025315122
            1904100207 1853881103 -286073346 -260702369</internalNodes>
          <leafValues>
            -4.3638297915458679e-01 3.2048907876014709e-01</leafValues></_></weakClassifiers></_>
    <!-- stage 2 -->
    <_>
      <maxWeakCount>10</maxWeakCount>
      <stageThreshold>-1.7355618476867676e+00</stageThreshold>
      <weakClassifiers>
        <_>
          <internalNodes>
            0 -1 92 -21841 -2118145 -1781063105 -2121073 -70272065
            -16385 -69227841 -21841</internalNodes>
          <leafValues>
            -6.7035841941833496e-01 5.1754385232925415e-01</leafValues></_>
        <_>
          <internalNodes>
            0 -1 61 -715786796 1360319572 -671771183 -706378313
            -11141123 -48890403 -8388657 -2049</internalNodes>
          <leafValues>
            -5.2982109785079956e-01 4.4323340058326721e-01</leafValues></_>
        <_>
          <internalNodes>
            0 -1 142 -33554433 -8540161 -1078480961 -4345905 1021667327
            -16875537 1324810414 804126726</internalNodes>
          <leafValues>
            -4.5626401901245117e-01 4.3460711836814880e-01</leafValues></_>
        <_>
          <internalNodes>
            0 -1 217 1078263502 1343291231 -88151041 1943533487
            -1060053783 -606273603 -54527509 -3145729</internalNodes>
          <leafValues>
            -4.0357878804206848e-01 3.7393474578857422e-01</leafValues></_>
        <_>
          <internalNodes>
            0 -1 51 780028799 -990095489 -285279490 -353829002
            1576951653 -1084752385 1778380533 -17110160</internalNodes>
          <leafValues>
            -4.4415450096130371e-01 3.6943995952606201e-01</leafValues></_>
        <_>
          <internalNodes>
            0 -1 132 -859953899 -1396786243 -2102273 -1330184738
            -117448755 -37748801 -219739427 -1460080956</internalNodes>
          <leafValues>
            -4.6720457077026367e-01 2.4664446711540222e-01</leafValues></_>
        <_>
          <internalNodes>
            0 -1 266 515833763 -1909293257 -1114177 -84350151 -137789596
            -1613371676 -462018748 -990445580</internalNodes>
          <leafValues>
            -4.2596742510795593e-01 2.8576478362083435e-01</leafValues></_>
        <_>
          <internalNodes>
            0 -1 7 -361838874 -1461770497 1861626411 -67170521
            -1065859391 1979539227 -151626242 -303141</internalNodes>
          <leafValues>
            -3.4427511692047119e-01 3.5028713941574097e-01</leafValues></_>
        <_>
          <internalNodes>
            0 -1 204 1409676556 1440022518 -238064733 -1141380149
            1498230190 1507802587 1870606318 1806647103</internalNodes>
          <leafValues>
            -4.2136764526367188e-01 2.6701733469963074e-01</leafValues></_>
        <_>
          <internalNodes>
            0 -1 36 -629685618 -721435713 -1167940938 -227391770
            1817067532 -795551659 -629384101 -218110257</internalNodes>
          <leafValues>
            -3.6307588219642639e-01 3.2208549976348877e-01</leafValues></_></weakClassifiers></_>
    <!-- stage 3 -->
    <_>
      <maxWeakCount>12</maxWeakCount>
      <stageThreshold>-1.6766269207000732e+00</stageThreshold>
      <weakClassifiers>
        <_>
          <internalNodes>
            0 -1 76 -2114625 -2119745 -2250053 -3167574 -2375745 -16401
            -6313301 -4216150</internalNodes>
          <leafValues>
            -6.0822570323944092e-01 5.1321619749069214e-01</leafValues></_>
        <_>
          <internalNodes>
            0 -1 58 -8193 834107383 -1646659137 1035713459 2147479551
            1073731583 -34799681 1068447675</internalNodes>
          <leafValues>
            -5.0995314121246338e-01 4.1610926389694214e-01</leafValues></_>
        <_>
          <internalNodes>
            0 -1 159 -792657922 -573186883 1907527476 -541595714
            1077990392 -833487138 -260727041 -201344277</internalNodes>
          <leafValues>
            -4.5143058896064758e-01 3.6700832843780518e-01</leafValues></_>
        <_>
          <internalNodes>
            0 -1 28 -318845185 -486888233 -318836769 -357631251
            1878990711 -167780353 -285913465 -16777217</internalNodes>
          <leafValues>
            -3.4168151021003723e-01 3.9924862980842590e-01</leafValues></_>
        <_>
          <internalNodes>
            0 -1 124 545923367 939390959 -570606673 -2284114 1699693469
            529488590 -172251188 -1249394</internalNodes>
          <leafValues>
            -3.8647934794425964e-01 3.4227141737937927e-01</leafValues></_>
        <_>
          <internalNodes>
            0 -1 264 -1360134345 -410337943 -131148 -76382653 -100896971
            -809517569 -145229968 -1163</internalNodes>
          <leafValues>
            -3.6708322167396545e-01 3.1691259145736694e-01</leafValues></_>
        <_>
          <internalNodes>
            0 -1 81 1433785620 354742336 1756353888 -173825539
            1278604213 -1249266874 -524389039 -437791461</internalNodes>
          <leafValues>
            -4.3573880195617676e-01 2.8300786018371582e-01</leafValues></_>
        <_>
          <internalNodes>
            0 -1 114 -209853710 1892936446 -27407264 -2050119095
            -1190791974 -20985141 -78648574 722316170</internalNodes>
          <leafValues>
            -3.5949838161468506e-01 2.9507452249526978e-01</leafValues></_>
        <_>
          <internalNodes>
            0 -1 155 207621941 519339998 -136806401 -1078575234
            1823690101 -132115 -286122117 -1140902032</internalNodes>
          <leafValues>
            -3.8330999016761780e-01 2.8773784637451172e-01</leafValues></_>
        <_>
          <internalNodes>
            0 -1 257 -280234201 -1901597188 1608510146 -426181662
            -160433241 -867442723 -1769475004 -992543407</internalNodes>
          <leafValues>
            -3.5627746582031250e-01 3.1222483515739441e-01</leafValues></_>
        <_>
          <internalNodes>
            0 -1 202 4506892 4481787 -1551892694 973057807 2147165449
            2003516091 2145086986 531574591</internalNodes>
          <leafValues>
            -6.3162261247634888e-01 1.5558718144893646e-01</leafValues></_>
        <_>
          <internalNodes>
            0 -1 235 -491991196 -1129271393 -536881160 -1399361
            -272646735 -1478694149 -138543704 -1398486560</internalNodes>
          <leafValues>
            -3.4875208139419556e-01 3.0014458298683167e-01</leafValues></_></weakClassifiers></_>
    <!-- stage 4 -->
    <_>
      <maxWeakCount>15</maxWeakCount>
      <stageThreshold>-1.6119899749755859e+00</stageThreshold>
      <weakClassifiers>
        <_>
          <internalNodes>
            0 -1 57 -541697 -153601 -578885 -3167574 -1196033 -4355585
            -4216150 -21617</internalNodes>
          <leafValues>
            -5.5916249752044678e-01 4.2835459113121033e-01</leafValues></_>
        <_>
          <internalNodes>
            0 -1 123 -8392785 2141175807 -201866582 -6296599 -4194305
            -5373969 -69338129 -51384338</internalNodes>
          <leafValues>
            -3.6455991864204407e-01 4.5709535479545593e-01</leafValues></_>
        <_>
          <internalNodes>
            0 -1 15 -1 -4097 -1494555926 -18678030 -268435457 -8713
            1417126132 -134229257</internalNodes>
          <leafValues>
            -3.3773323893547058e-01 4.4489029049873352e-01</leafValues></_>
        <_>
          <internalNodes>
            0 -1 53 -420483506 -8915865 -252786590 -117509470 1081016653
            -8430471 -453032416 -137</internalNodes>
          <leafValues>
            -4.1725575923919678e-01 3.0885171890258789e-01</leafValues></_>
        <_>
          <internalNodes>
            0 -1 200 -1343045835 -134414357 -41959489 -571679770
            -12264193 -33554513 -842672195 -286755740</internalNodes>
          <leafValues>
            -3.0740767717361450e-01 3.9902895689010620e-01</leafValues></_>
        <_>
          <internalNodes>
            0 -1 220 1692331086 1391389098 2063527134 -128385208
            1089622004 -587794977 -335553542 -258543638</internalNodes>
          <leafValues>
            -4.3613892793655396e-01 2.4398799240589142e-01</leafValues></_>
        <_>
          <internalNodes>
            0 -1 163 -2031147217 585889771 -404232670 -1595167762
            -1764393097 -135662249 -34904540 -355536961</internalNodes>
          <leafValues>
            -4.1110220551490784e-01 2.6691827178001404e-01</leafValues></_>
        <_>
          <internalNodes>
            0 -1 23 1934444743 635350916 1977475069 227150624 1787123167
            2146954687 2060419039 2109432695</internalNodes>
          <leafValues>
            -4.6571397781372070e-01 2.2277244925498962e-01</leafValues></_>
        <_>
          <internalNodes>
            0 -1 231 -272630237 36698734 -36719968 -1015295008
            1037561063 -2020803529 1735897664 -255328841</internalNodes>
          <leafValues>
            -4.0372213721275330e-01 2.3723341524600983e-01</leafValues></_>
        <_>
          <internalNodes>
            0 -1 109 1256360960 -142071046 -1418042290 -11015634
            1142965316 -323205785 497436684 -6859418</internalNodes>
          <leafValues>
            -3.8696148991584778e-01 2.7599769830703735e-01</leafValues></_>
        <_>
          <internalNodes>
            0 -1 120 -456853260 -395452718 1143268601 -844125510
            1682299123 -101930834 1412808703 -295978070</internalNodes>
          <leafValues>
            -4.5764368772506714e-01 2.4608844518661499e-01</leafValues></_>
        <_>
          <internalNodes>
            0 -1 39 -419967121 -282106449 -90177810 1645411374
            -941765553 1327483495 -50864386 -252510481</internalNodes>
          <leafValues>
            -3.7620171904563904e-01 2.5612992048263550e-01</leafValues></_>
        <_>
          <internalNodes>
            0 -1 106 623060272 1287050786 -302006796 -102319118
            1203846550 -559487190 131445076 -975777596</internalNodes>
          <leafValues>
            -4.4297766685485840e-01 2.0988471806049347e-01</leafValues></_>
        <_>
          <internalNodes>
            0 -1 169 -1375738076 1020651487 -16855044 -1107362306
            -168430655 610394621 -1262892596 14665930</internalNodes>
          <leafValues>
            -3.9002430438995361e-01 2.3750603199005127e-01</leafValues></_>
        <_>
          <internalNodes>
            0 -1 250 -1908672751 -1148324217 -414360105 -2021664802
            -1358481991 -1107701281 550450484 -1929515277</internalNodes>
          <leafValues>
            -3.1164121627807617e-01 3.0983933806419373e-01</leafValues></_></weakClassifiers></_>
    <!-- stage 5 -->
    <_>
      <maxWeakCount>16</maxWeakCount>
      <stageThreshold>-1.7993212938308716e+00</stageThreshold>
      <weakClassifiers>
        <_>
          <internalNodes>
            0 -1 121 -33558545 -14881 -67130482 -2115158 -67108945
            -24599 -4118 -18</internalNodes>
          <leafValues>
            -5.4103553295135498e-01 3.5729816555976868e-01</leafValues></_>
        <_>
          <internalNodes>
            0 -1 82 567739199 -2249217 903619519 -2152529 -1082540097
            -1075319809 -238113877 -1201747</internalNodes>
          <leafValues>
            -4.2599171400070190e-01 3.4495422244071960e-01</leafValues></_>
        <_>
          <internalNodes>
            0 -1 30 -285212673 -320688237 -490733570 -1465745930
            -814785753 -8653385 -67110331 -420020364</internalNodes>
          <leafValues>
            -4.4830402731895447e-01 3.1351977586746216e-01</leafValues></_>
        <_>
          <internalNodes>
            0 -1 179 -830476489 -1107361977 -16777345 -1124549 -524353
            -114 -33579265 -286636796</internalNodes>
          <leafValues>
            -3.3183634281158447e-01 4.0089741349220276e-01</leafValues></_>
        <_>
          <internalNodes>
            0 -1 154 -182722304 136438528 -38835759 -1381237335
            2107636003 -1523187961 -402671197 -1414529093</internalNodes>
          <leafValues>
            -3.3213016390800476e-01 3.4846743941307068e-01</leafValues></_>
        <_>
          <internalNodes>
            0 -1 173 743980916 -696493067 -1077936129 -2347075
            -606291979 -724996 -16391 -1346892752</internalNodes>
          <leafValues>
            -4.1143986582756042e-01 2.3478181660175323e-01</leafValues></_>
        <_>
          <internalNodes>
            0 -1 161 -270537169 -1364983938 -4178 -1962999890 -679510681
            -136849429 -134235354 -453333011</internalNodes>
          <leafValues>
            -3.0782514810562134e-01 3.3885079622268677e-01</leafValues></_>
        <_>
          <internalNodes>
            0 -1 236 -866990908 -2004819748 -1561078768 -2103904112
            -823341836 -620785041 -861285896 -1075054085</internalNodes>
          <leafValues>
            -4.6701836585998535e-01 2.2149324417114258e-01</leafValues></_>
        <_>
          <internalNodes>
            0 -1 56 -352399697 -153140657 -493164946 -496857438
            1217873999 -75609609 -1060907570 -220997897</internalNodes>
          <leafValues>
            -3.7498769164085388e-01 2.5522661209106445e-01</leafValues></_>
        <_>
          <internalNodes>
            0 -1 80 1358980352 285244723 -157193933 331326342 1957640637
            -4673 -103208017 1069494207</internalNodes>
          <leafValues>
            -5.0538325309753418e-01 1.8181884288787842e-01</leafValues></_>
        <_>
          <internalNodes>
            0 -1 246 804747029 -1359291747 -50856065 -23302156
            -939559084 -140248235 -369638064 -252252876</internalNodes>
          <leafValues>
            -4.1327634453773499e-01 2.2212292253971100e-01</leafValues></_>
        <_>
          <internalNodes>
            0 -1 115 -352815755 -1115939239 2012998651 -79812665
            -50922003 -67109377 -1157665351 -1439664652</internalNodes>
          <leafValues>
            -3.2195407152175903e-01 2.7194729447364807e-01</leafValues></_>
        <_>
          <internalNodes>
            0 -1 2 -1893036285 -1574244570 -37767430 -297660704
            1327729503 1740837787 1064452983 -680323609</internalNodes>
          <leafValues>
            -4.0358006954193115e-01 2.2735115885734558e-01</leafValues></_>
        <_>
          <internalNodes>
            0 -1 196 -92996108 1588101836 -2876929 -1346630499
            -269141571 -406901395 -308449935 733678705</internalNodes>
          <leafValues>
            -3.9865320920944214e-01 2.2167325019836426e-01</leafValues></_>
        <_>
          <internalNodes>
            0 -1 165 -17891348 -2143502357 -470887676 -304809986
            1996222996 -411698179 -159389779 -1107971278</internalNodes>
          <leafValues>
            -3.1911548972129822e-01 2.8441256284713745e-01</leafValues></_>
        <_>
          <internalNodes>
            0 -1 34 -295711921 -1574542354 681503374 1915414222
            1131109447 1448175991 -198017216 -194781337</internalNodes>
          <leafValues>
            -4.6498724818229675e-01 1.8486429750919342e-01</leafValues></_></weakClassifiers></_>
    <!-- stage 6 -->
    <_>
      <maxWeakCount>18</maxWeakCount>
      <stageThreshold>-1.5849612951278687e+00</stageThreshold>
      <weakClassifiers>
        <_>
          <internalNodes>
            0 -1 180 -524289 -2228241 -310020161 -1048577 -37016833
            -72816197 -1157889 2147435815</internalNodes>
          <leafValues>
            -5.9433519840240479e-01 2.4574266374111176e-01</leafValues></_>
        <_>
          <internalNodes>
            0 -1 64 -683280395 -720080459 1442839831 -167909953
            -581566465 -4343809 -35651585 -33</internalNodes>
          <leafValues>
            -3.4777945280075073e-01 4.1124275326728821e-01</leafValues></_>
        <_>
          <internalNodes>
            0 -1 99 -472143953 -68891729 -204013401 -538253432
            -1082262529 -72372755 -135267636 -8063520</internalNodes>
          <leafValues>
            -3.5102966427803040e-01 3.3510333299636841e-01</leafValues></_>
        <_>
          <internalNodes>
            0 -1 16 -890245377 -587214081 -2108800850 -390266706
            -1069037361 -838939141 -806404082 -805322545</internalNodes>
          <leafValues>
            -2.9020491242408752e-01 3.7399318814277649e-01</leafValues></_>
        <_>
          <internalNodes>
            0 -1 263 -1364721869 -1509884127 -525005 -21299342 -73400491
            -998777349 -828911244 -167841995</internalNodes>
          <leafValues>
            -3.2683873176574707e-01 3.3917635679244995e-01</leafValues></_>
        <_>
          <internalNodes>
            0 -1 206 1080222383 1944250559 718710431 -4837 1677411327
            -1284886 -9752913 -1342472393</internalNodes>
          <leafValues>
            -3.3644115924835205e-01 2.6193872094154358e-01</leafValues></_>
        <_>
          <internalNodes>
            0 -1 79 822140840 285336593 -1074589936 563160881 1337405121
            -1077945383 -1050434 1001065395</internalNodes>
          <leafValues>
            -4.5240044593811035e-01 2.1176064014434814e-01</leafValues></_>
        <_>
          <internalNodes>
            0 -1 38 -1052785 -134226505 -90571718 -267717702 -729872569
            -13113033 -709894774 -264770081</internalNodes>
          <leafValues>
            -3.0691903829574585e-01 2.8214854001998901e-01</leafValues></_>
        <_>
          <internalNodes>
            0 -1 197 678696437 -1661477131 -147457 -1073741827
            1071591421 -147651 -1147200005 -1346691911</internalNodes>
          <leafValues>
            -2.4448668956756592e-01 3.3859303593635559e-01</leafValues></_>
        <_>
          <internalNodes>
            0 -1 240 -604506225 -941426697 -622856638 1073806486
            1568553357 -885137961 -1227897724 -1044910093</internalNodes>
          <leafValues>
            -3.0372354388237000e-01 2.7584677934646606e-01</leafValues></_>
        <_>
          <internalNodes>
            0 -1 4 -31260877 -89477242 -134217765 -1348460494 -262277
            -274247689 -134743046 -37081</internalNodes>
          <leafValues>
            -2.4206855893135071e-01 3.5294371843338013e-01</leafValues></_>
        <_>
          <internalNodes>
            0 -1 222 -617032203 -726073739 -1400900293 -1623978520
            435093496 -71706625 879718395 110232815</internalNodes>
          <leafValues>
            -3.1290018558502197e-01 2.5973325967788696e-01</leafValues></_>
        <_>
          <internalNodes>
            0 -1 186 -1494022617 70708997 -52774170 -420431617
            1936917781 1970303349 -28066548 -177017218</internalNodes>
          <leafValues>
            -4.0163782238960266e-01 2.0444838702678680e-01</leafValues></_>
        <_>
          <internalNodes>
            0 -1 195 538458676 -1102791211 -1652634628 -1078187331
            -381868099 -196803 -96894979 -1079042765</internalNodes>
          <leafValues>
            -2.8926050662994385e-01 2.7853858470916748e-01</leafValues></_>
        <_>
          <internalNodes>
            0 -1 75 724967189 -1367340451 -1088434762 -1372836936
            -1612290049 -537052329 -1209076267 -1121972876</internalNodes>
          <leafValues>
            -4.2405045032501221e-01 1.9637694954872131e-01</leafValues></_>
        <_>
          <internalNodes>
            0 -1 8 -826388758 -1308915993 -1504303365 -169465324
            1353082709 397512121 -198410625 -67383714</internalNodes>
          <leafValues>
            -3.2495623826980591e-01 2.4011322855949402e-01</leafValues></_>
        <_>
          <internalNodes>
            0 -1 110 -1007619168 -656486192 -1294025972 -1230076876
            16036852 -890193554 404763888 320013666</internalNodes>
          <leafValues>
            -4.3490505218505859e-01 1.7482571303844452e-01</leafValues></_>
        <_>
          <internalNodes>
            0 -1 256 -335548633 695271086 -1398947920 -425004232
            -641277988 -1006193682 -2050763552 -858348236</internalNodes>
          <leafValues>
            -3.3460345864295959e-01 2.2980174422264099e-01</leafValues></_></weakClassifiers></_>
    <!-- stage 7 -->
    <_>
      <maxWeakCount>20</maxWeakCount>
      <stageThreshold>-1.6722819805145264e+00</stageThreshold>
      <weakClassifiers>
        <_>
          <internalNodes>
            0 -1 59 -3163649 -2772995 835986367 -33575971 -35340353
            -7274785 -71451717 -21553</internalNodes>
          <leafValues>
            -4.9431338906288147e-01 3.5513284802436829e-01</leafValues></_>
        <_>
          <internalNodes>
            0 -1 119 -1 -33685521 71303680 -861024353 -134758641
            -35651793 -10113201 -3166321</internalNodes>
          <leafValues>
            -2.7021420001983643e-01 5.6231528520584106e-01</leafValues></_>
        <_>
          <internalNodes>
            0 -1 3 -790785 -840036629 -536919273 -911536382 -528385
            -538513441 -142639105 -37029</internalNodes>
          <leafValues>
            -2.4170872569084167e-01 4.4177064299583435e-01</leafValues></_>
        <_>
          <internalNodes>
            0 -1 168 -122232836 -1091008005 -1342291972 -4444424
            -134367819 -17302545 -1073988936 -1078450000</internalNodes>
          <leafValues>
            -3.7290626764297485e-01 2.3864053189754486e-01</leafValues></_>
        <_>
          <internalNodes>
            0 -1 224 -271847645 587440403 -175001584 -9184461 1337169827
            -1902184185 -705175147 -167780925</internalNodes>
          <leafValues>
            -2.9962933063507080e-01 3.0344325304031372e-01</leafValues></_>
        <_>
          <internalNodes>
            0 -1 160 -855642362 -1560551425 -4217410 -1430589490
            -481462985 -268447795 -404670683 -285808852</internalNodes>
          <leafValues>
            -3.2370120286941528e-01 2.7418151497840881e-01</leafValues></_>
        <_>
          <internalNodes>
            0 -1 244 -590829164 -50563587 -4194561 -576938785 -373359428
            -274795523 -385966920 -1431896147</internalNodes>
          <leafValues>
            -2.9153287410736084e-01 2.7992933988571167e-01</leafValues></_>
        <_>
          <internalNodes>
            0 -1 31 -326121490 2001721294 -831871746 -43365334
            1532710698 -10768281 -445198108 -212384761</internalNodes>
          <leafValues>
            -3.4107640385627747e-01 2.5192093849182129e-01</leafValues></_>
        <_>
          <internalNodes>
            0 -1 193 -538509360 -254775120 -1411436871 -182386179
            -274858056 -1261165008 -1574532438 -1531184133</internalNodes>
          <leafValues>
            -2.6674896478652954e-01 2.8976017236709595e-01</leafValues></_>
        <_>
          <internalNodes>
            0 -1 101 1979184419 19914012 -841682986 -2359329 265887197
            666823071 -893223217 -1594059033</internalNodes>
          <leafValues>
            -2.8736600279808044e-01 2.6984846591949463e-01</leafValues></_>
        <_>
          <internalNodes>
            0 -1 150 1290596272 -67307649 -1141825 -4309026 -639591236
            -4736577 -1074262216 -1422390096</internalNodes>
          <leafValues>
            -3.0802550911903381e-01 2.5355425477027893e-01</leafValues></_>
        <_>
          <internalNodes>
            0 -1 12 -285258113 620166250 -187823050 -1602827089
            -339129231 -77702054 -1537791483 -185139339</internalNodes>
          <leafValues>
            -3.8408222794532776e-01 1.9805221259593964e-01</leafValues></_>
        <_>
          <internalNodes>
            0 -1 182 49653774 309697998 -1151792841 1506246447
            2071146463 2147449342 -1010471381 1039429378</internalNodes>
          <leafValues>
            -4.9615100026130676e-01 1.5379150211811066e-01</leafValues></_>
        <_>
          <internalNodes>
            0 -1 73 -755052802 -211918830 -500517122 615066146
            1354107914 -565246785 1243776202 -112736026</internalNodes>
          <leafValues>
            -3.0041480064392090e-01 2.4232757091522217e-01</leafValues></_>
        <_>
          <internalNodes>
            0 -1 214 -466452939 -1342898284 -379867202 -340069569
            -1405579275 -1853253 -613941251 -1902099184</internalNodes>
          <leafValues>
            -3.5650846362113953e-01 2.0837783813476562e-01</leafValues></_>
        <_>
          <internalNodes>
            0 -1 146 -253238778 551650959 -789807231 -1827707187
            1918171073 -522155439 -238687409 -454711009</internalNodes>
          <leafValues>
            -3.0673718452453613e-01 2.4267916381359100e-01</leafValues></_>
        <_>
          <internalNodes>
            0 -1 261 -1365051120 953422016 273273489 -1856246156
            237703969 449051481 -1415607421 -1076504641</internalNodes>
          <leafValues>
            -3.4602686762809753e-01 2.0716921985149384e-01</leafValues></_>
        <_>
          <internalNodes>
            0 -1 151 606069908 -700647680 -1967133191 -276173057
            -12715227 -1255083612 689961343 791398151</internalNodes>
          <leafValues>
            -2.8423383831977844e-01 2.6009476184844971e-01</leafValues></_>
        <_>
          <internalNodes>
            0 -1 14 -289997198 -256750044 -1688229065 402836194
            -370468924 -1351305722 -1803646240 -666712998</internalNodes>
          <leafValues>
            -3.5432636737823486e-01 1.9676390290260315e-01</leafValues></_>
        <_>
          <internalNodes>
            0 -1 41 -1749368841 -1392334622 -578027660 -1964480396
            -810859529 792455195 -288405643 -8450703</internalNodes>
          <leafValues>
            -2.8638228774070740e-01 2.4469666182994843e-01</leafValues></_></weakClassifiers></_>
    <!-- stage 8 -->
    <_>
      <maxWeakCount>20</maxWeakCount>
      <stageThreshold>-1.6165959835052490e+00</stageThreshold>
      <weakClassifiers>
        <_>
          <internalNodes>
            0 -1 131 -16777217 -2113 -161755137 -6299777 -20971521 -529
            -289411073 -1464144129</internalNodes>
          <leafValues>
            -4.6204650402069092e-01 3.5429629683494568e-01</leafValues></_>
        <_>
          <internalNodes>
            0 -1 216 -800786226 1414852479 -1299482625 -149451025
            -858405426 -8655138 -16790529 -2359297</internalNodes>
          <leafValues>
            -4.7321298718452454e-01 2.7161845564842224e-01</leafValues></_>
        <_>
          <internalNodes>
            0 -1 162 -135532753 -738734721 -723783890 -2168338
            1618965631 -7381898 1951356172 -17992178</internalNodes>
          <leafValues>
            -4.0613397955894470e-01 2.7062153816223145e-01</leafValues></_>
        <_>
          <internalNodes>
            0 -1 241 -671090701 593753395 -1644736432 2107899761
            -302260741 -806490121 1442305088 -574628623</internalNodes>
          <leafValues>
            -2.3333248496055603e-01 4.0993553400039673e-01</leafValues></_>
        <_>
          <internalNodes>
            0 -1 103 387134769 -1256200245 -8446923 -136327394 770538905
            -2254161 -1090560099 -34882</internalNodes>
          <leafValues>
            -3.5699990391731262e-01 2.6865714788436890e-01</leafValues></_>
        <_>
          <internalNodes>
            0 -1 153 238571349 503234543 -1176536193 771165887
            1566265343 -1073906753 -593541265 -1342238857</internalNodes>
          <leafValues>
            -3.5124793648719788e-01 2.2246949374675751e-01</leafValues></_>
        <_>
          <internalNodes>
            0 -1 32 -292360449 -594177 -391999766 -18568474 1124263167
            -1270458393 1410385151 -134748417</internalNodes>
          <leafValues>
            -2.4904525279998779e-01 3.2654562592506409e-01</leafValues></_>
        <_>
          <internalNodes>
            0 -1 187 -103289298 -705167489 -1212256418 -440401969
            -1001032451 -170002475 -174247953 -184158241</internalNodes>
          <leafValues>
            -2.4647286534309387e-01 3.1696981191635132e-01</leafValues></_>
        <_>
          <internalNodes>
            0 -1 243 -1091420367 -33605801 -1140924419 -147407657
            1255874048 -33621193 -52937696 -1430774567</internalNodes>
          <leafValues>
            -3.3514314889907837e-01 2.2336268424987793e-01</leafValues></_>
        <_>
          <internalNodes>
            0 -1 48 -285324267 -1159972965 -69961858 857616587
            -234995935 -2884965 -168011661 -202483077</internalNodes>
          <leafValues>
            -3.0078125000000000e-01 2.4865010380744934e-01</leafValues></_>
        <_>
          <internalNodes>
            0 -1 108 -18087937 -763973721 -1230982 -787546 -416067667
            -1000061521 2137386971 -16427513</internalNodes>
          <leafValues>
            -2.1890506148338318e-01 3.4873110055923462e-01</leafValues></_>
        <_>
          <internalNodes>
            0 -1 74 -268447761 1861279359 -21373002 -265126129
            -813771692 -545716917 -19606524 -227872786</internalNodes>
          <leafValues>
            -2.6755404472351074e-01 2.7245506644248962e-01</leafValues></_>
        <_>
          <internalNodes>
            0 -1 253 -324084580 -1729667779 -1090584961 1023410163
            -1661097088 -285249811 -1430353784 -1427177955</internalNodes>
          <leafValues>
            -2.5053906440734863e-01 2.7805793285369873e-01</leafValues></_>
        <_>
          <internalNodes>
            0 -1 152 204478832 -1082257931 -538804289 1065123387
            -205996044 -25264449 -1665260300 733480980</internalNodes>
          <leafValues>
            -4.3412125110626221e-01 1.5236733853816986e-01</leafValues></_>
        <_>
          <internalNodes>
            0 -1 84 42410753 928888727 844407755 -245495386 1808686477
            1729288328 -474044024 1959256716</internalNodes>
          <leafValues>
            -4.2067715525627136e-01 1.6265632212162018e-01</leafValues></_>
        <_>
          <internalNodes>
            0 -1 181 1078261198 1348073976 -1830063133 1029958605
            1343488512 1610346217 1062152043 1676349247</internalNodes>
          <leafValues>
            -4.3253883719444275e-01 1.6835398972034454e-01</leafValues></_>
        <_>
          <internalNodes>
            0 -1 35 -21511026 -261692347 1381943894 -232602906
            1708605518 593910613 2116015718 -228066441</internalNodes>
          <leafValues>
            -3.9484637975692749e-01 1.6624109447002411e-01</leafValues></_>
        <_>
          <internalNodes>
            0 -1 126 1907505138 1425076974 93776850 1300586734
            -1216481412 -1437806956 1866448731 21717571</internalNodes>
          <leafValues>
            -3.2079085707664490e-01 2.2304922342300415e-01</leafValues></_>
        <_>
          <internalNodes>
            0 -1 164 -402917585 -1530003521 -1863587322 -823296157
            -428542379 -59376281 -1481265375 -461387825</internalNodes>
          <leafValues>
            -2.5317430496215820e-01 2.7568769454956055e-01</leafValues></_>
        <_>
          <internalNodes>
            0 -1 137 192408372 -1334665539 1062964412 -13621702
            1939521009 1750081499 -1073792264 -1346952638</internalNodes>
          <leafValues>
            -2.5988581776618958e-01 2.6331412792205811e-01</leafValues></_></weakClassifiers></_>
    <!-- stage 9 -->
    <_>
      <maxWeakCount>22</maxWeakCount>
      <stageThreshold>-1.5040296316146851e+00</stageThreshold>
      <weakClassifiers>
        <_>
          <internalNodes>
            0 -1 77 -671745 -35805697 -170542407 -23553 -35668227
            -40007185 -5133656 -1343247698</internalNodes>
          <leafValues>
            -5.2568137645721436e-01 2.3629829287528992e-01</leafValues></_>
        <_>
          <internalNodes>
            0 -1 170 -67108897 -644223045 -33554979 -1919156257
            -1392525377 -1182670967 -369098753 -2003959923</internalNodes>
          <leafValues>
            -2.5424477458000183e-01 4.8004117608070374e-01</leafValues></_>
        <_>
          <internalNodes>
            0 -1 66 -957448268 -353435652 -541083649 -285545554
            -2014445583 -36196425 -152046124 -16846348</internalNodes>
          <leafValues>
            -3.9694592356681824e-01 2.4719795584678650e-01</leafValues></_>
        <_>
          <internalNodes>
            0 -1 158 -33559348 -3209505 1853863126 -1375735121 274064865
            -1103111502 1684137139 1937220235</internalNodes>
          <leafValues>
            -3.5890862345695496e-01 2.4999317526817322e-01</leafValues></_>
        <_>
          <internalNodes>
            0 -1 89 -538977537 1573881395 531522671 530258079 -930462529
            1493058631 1366770888 1483691102</internalNodes>
          <leafValues>
            -2.7543547749519348e-01 3.0689066648483276e-01</leafValues></_>
        <_>
          <internalNodes>
            0 -1 249 -58784747 -1142179173 -1375749321 -222374017
            -288663296 -1207992521 -1363636432 -1163214913</internalNodes>
          <leafValues>
            -3.2787993550300598e-01 2.4434007704257965e-01</leafValues></_>
        <_>
          <internalNodes>
            0 -1 42 2002090743 318808578 499898105 588186409 1627743135
            1868272371 1430781598 1001872782</internalNodes>
          <leafValues>
            -4.0766632556915283e-01 2.0021595060825348e-01</leafValues></_>
        <_>
          <internalNodes>
            0 -1 228 -263246 1946401442 -1125523216 -610019970
            -424612374 708549528 -247627632 -610022502</internalNodes>
          <leafValues>
            -2.6236033439636230e-01 2.8353860974311829e-01</leafValues></_>
        <_>
          <internalNodes>
            0 -1 226 141166637 400476123 785796235 28183503 2112098153
            -9916673 -1412972914 -1074062338</internalNodes>
          <leafValues>
            -3.9575186371803284e-01 1.8450452387332916e-01</leafValues></_>
        <_>
          <internalNodes>
            0 -1 10 -293715348 1828132 -889753990 -1569001482
            -1071027344 1423864586 1605586292 -184623179</internalNodes>
          <leafValues>
            -4.2871084809303284e-01 1.5761137008666992e-01</leafValues></_>
        <_>
          <internalNodes>
            0 -1 172 1852850164 -67358787 2146779129 -151559 -1078595587
            -33603842 -573366371 -1073800513</internalNodes>
          <leafValues>
            -1.9530804455280304e-01 3.7013909220695496e-01</leafValues></_>
        <_>
          <internalNodes>
            0 -1 266 262340543 -329006881 1998765380 -858992179
            920876919 -823282698 -154175916 -825295579</internalNodes>
          <leafValues>
            -3.4139817953109741e-01 2.0280611515045166e-01</leafValues></_>
        <_>
          <internalNodes>
            0 -1 128 -642389264 -186612508 -1451112193 -1964733188
            -215483403 -795516924 994026039 624293975</internalNodes>
          <leafValues>
            -3.6557114124298096e-01 1.7230159044265747e-01</leafValues></_>
        <_>
          <internalNodes>
            0 -1 125 1187505902 544496570 -1514385748 -539593218
            1969449982 -2064584283 -1122557970 1165061111</internalNodes>
          <leafValues>
            -3.2909965515136719e-01 1.9786299765110016e-01</leafValues></_>
        <_>
          <internalNodes>
            0 -1 262 -1355615472 -1835478360 -1415090143 600495061
            -1098001501 -553401193 42246113 -1478780937</internalNodes>
          <leafValues>
            -3.1348738074302673e-01 2.0737296342849731e-01</leafValues></_>
        <_>
          <internalNodes>
            0 -1 138 1080052836 -42465921 -4375621 928132723 140591461
            1236367671 690948951 795029043</internalNodes>
          <leafValues>
            -3.5529643297195435e-01 1.6521194577217102e-01</leafValues></_>
        <_>
          <internalNodes>
            0 -1 130 212770093 179109877 -119941530 345526980 2079668684
            -82576613 -1224869520 -1433344424</internalNodes>
          <leafValues>
            -3.9850178360939026e-01 1.6632649302482605e-01</leafValues></_>
        <_>
          <internalNodes>
            0 -1 37 -894436722 -823727874 1690422891 -838102153
            2055864068 -1067060530 2065686347 1338757087</internalNodes>
          <leafValues>
            -3.1490245461463928e-01 1.9797363877296448e-01</leafValues></_>
        <_>
          <internalNodes>
            0 -1 183 -30085380 -209726527 -1599076148 1916844922
            1409549348 1450576481 -268122628 -351827430</internalNodes>
          <leafValues>
            -3.5223278403282166e-01 1.8582601845264435e-01</leafValues></_>
        <_>
          <internalNodes>
            0 -1 122 1866457863 131855287 1979018144 -1208159761
            1604933631 782322955 -141594701 -1057691676</internalNodes>
          <leafValues>
            -3.0696895718574524e-01 2.0411911606788635e-01</leafValues></_>
        <_>
          <internalNodes>
            0 -1 223 -1415334096 789788470 1600345909 129883413
            192937885 -2031359755 886743297 -1363428960</internalNodes>
          <leafValues>
            -3.0142301321029663e-01 2.0795252919197083e-01</leafValues></_>
        <_>
          <internalNodes>
            0 -1 87 1698148160 817004019 -184496286 -169942581 972387774
            -1027466771 -1417329340 1431638647</internalNodes>
          <leafValues>
            -3.4532156586647034e-01 1.8348400294780731e-01</leafValues></_></weakClassifiers></_>
    <!-- stage 10 -->
    <_>
      <maxWeakCount>24</maxWeakCount>
      <stageThreshold>-1.6751610040664673e+00</stageThreshold>
      <weakClassifiers>
        <_>
          <internalNodes>
            0 -1 64 -2230273 -168431371 -201328641 -134219857 -1 -262145
            -33554433 -16385</internalNodes>
          <leafValues>
            -3.6774581670761108e-01 4.9959990382194519e-01</leafValues></_>
        <_>
          <internalNodes>
            0 -1 199 -538970121 -1155 -65 -528845 -50335745 -5
            -806625825 -1620735</internalNodes>
          <leafValues>
            -2.7270331978797913e-01 4.0562403202056885e-01</leafValues></_>
        <_>
          <internalNodes>
            0 -1 40 -16782593 -8392977 -218704129 -229377809 -285216769
            -11543217 -186712321 -142618641</internalNodes>
          <leafValues>
            -2.2221046686172485e-01 4.5254313945770264e-01</leafValues></_>
        <_>
          <internalNodes>
            0 -1 209 -69739570 -179056577 1541362056 -105712136
            1424611837 -1937645640 -659043704 -925302838</internalNodes>
          <leafValues>
            -3.4154555201530457e-01 2.4856097996234894e-01</leafValues></_>
        <_>
          <internalNodes>
            0 -1 192 -113250430 824276737 -67114318 -1245839433
            -1130762359 687975809 -1919843704 -2003829109</internalNodes>
          <leafValues>
            -2.6390981674194336e-01 2.8572246432304382e-01</leafValues></_>
        <_>
          <internalNodes>
            0 -1 62 -579042497 -1073860609 -537019399 -5461362 -8470851
            -68575281 -71455829 -145981184</internalNodes>
          <leafValues>
            -2.2889466583728790e-01 3.1129497289657593e-01</leafValues></_>
        <_>
          <internalNodes>
            0 -1 248 -806355165 572978606 -23074992 -1302686080
            -1645488669 -367526753 -958409504 -285214218</internalNodes>
          <leafValues>
            -2.8979870676994324e-01 2.2950482368469238e-01</leafValues></_>
        <_>
          <internalNodes>
            0 -1 2 -819793985 -1364529438 -1006668801 -1371494166
            -1911585861 1849022415 -545271817 -35593</internalNodes>
          <leafValues>
            -2.3962007462978363e-01 2.7934464812278748e-01</leafValues></_>
        <_>
          <internalNodes>
            0 -1 94 -370021488 16119328 -993001216 -1929536659
            -111678902 -1373632336 -558117 -537949537</internalNodes>
          <leafValues>
            -3.1617772579193115e-01 2.2106280922889709e-01</leafValues></_>
        <_>
          <internalNodes>
            0 -1 86 237899008 -60633104 -102858777 -89740300 -1364560476
            -470357130 -2022845259 -1057094480</internalNodes>
          <leafValues>
            -4.2768606543540955e-01 1.3559442758560181e-01</leafValues></_>
        <_>
          <internalNodes>
            0 -1 139 -2010624720 1943294975 -555909123 939408060
            181931993 -273490547 -1377296972 699401268</internalNodes>
          <leafValues>
            -4.3420407176017761e-01 1.4778387546539307e-01</leafValues></_>
        <_>
          <internalNodes>
            0 -1 85 -1066271821 -1040876305 348414483 1083566835
            -1746206941 1105013614 -177784029 1475545651</internalNodes>
          <leafValues>
            -2.4624919891357422e-01 2.6017031073570251e-01</leafValues></_>
        <_>
          <internalNodes>
            0 -1 13 -300941329 2088761195 -282407893 -261952982 -13296
            -126668971 -25285617 -8928702</internalNodes>
          <leafValues>
            -2.3134972155094147e-01 2.6880976557731628e-01</leafValues></_>
        <_>
          <internalNodes>
            0 -1 174 631509424 -4451596 -1654513189 -1076204937 -6750211
            -4428817 -1694613512 -1094972404</internalNodes>
          <leafValues>
            -2.9920980334281921e-01 2.1623207628726959e-01</leafValues></_>
        <_>
          <internalNodes>
            0 -1 143 -287322357 716895091 -169564181 549448935
            1977382263 -15473503 133735395 -1600066137</internalNodes>
          <leafValues>
            -3.1149110198020935e-01 2.0246656239032745e-01</leafValues></_>
        <_>
          <internalNodes>
            0 -1 178 365903793 797023166 -208461064 -1932626522
            1174216373 1874260210 13990389 -390318364</internalNodes>
          <leafValues>
            -3.5628968477249146e-01 1.6479621827602386e-01</leafValues></_>
        <_>
          <internalNodes>
            0 -1 213 -587726975 352441603 -1226379087 500826037
            -1955604535 -1912340553 -1368403285 -1075839089</internalNodes>
          <leafValues>
            -1.6347119212150574e-01 3.7373936176300049e-01</leafValues></_>
        <_>
          <internalNodes>
            0 -1 166 -1000086996 133149030 -290985009 1263459319
            1882670176 1897291974 -1758222101 -479795063</internalNodes>
          <leafValues>
            -3.4893876314163208e-01 1.7078837752342224e-01</leafValues></_>
        <_>
          <internalNodes>
            0 -1 245 -2030134064 -1216601443 -1076610049 1033502431
            -1126393395 -68093815 -631726664 -1566264132</internalNodes>
          <leafValues>
            -2.6216575503349304e-01 2.3345118761062622e-01</leafValues></_>
        <_>
          <internalNodes>
            0 -1 190 -290524081 1827329660 -304117246 571927726
            -1390932993 -1374412702 -188747552 1712645666</internalNodes>
          <leafValues>
            -3.6314651370048523e-01 1.6283732652664185e-01</leafValues></_>
        <_>
          <internalNodes>
            0 -1 27 -833967930 -1283328 -466606711 2042758674 2146570039
            1072101703 2033286961 2136963874</internalNodes>
          <leafValues>
            -3.4345963597297668e-01 1.7290984094142914e-01</leafValues></_>
        <_>
          <internalNodes>
            0 -1 257 -305148613 1340597871 333177334 -309199312
            -1942229341 181649544 1286330564 -1000349628</internalNodes>
          <leafValues>
            -2.5362548232078552e-01 2.2611343860626221e-01</leafValues></_>
        <_>
          <internalNodes>
            0 -1 107 2142695794 1965168147 -531709604 -1693071861
            -1587172694 -1006591826 1539195161 1577272398</internalNodes>
          <leafValues>
            -2.6122906804084778e-01 2.2405298054218292e-01</leafValues></_>
        <_>
          <internalNodes>
            0 -1 215 -2113740784 -68510075 -840500985 -543026397
            -1519376442 -72095585 -8170067 -874617500</internalNodes>
          <leafValues>
            -2.7002269029617310e-01 2.0972961187362671e-01</leafValues></_></weakClassifiers></_>
    <!-- stage 11 -->
    <_>
      <maxWeakCount>25</maxWeakCount>
      <stageThreshold>-1.5559608936309814e+00</stageThreshold>
      <weakClassifiers>
        <_>
          <internalNodes>
            0 -1 44 -45106177 -539625985 -44913992 -4805958 -33882113
            -6774801 -615203909 -54389</internalNodes>
          <leafValues>
            -4.8947593569755554e-01 2.0265348255634308e-01</leafValues></_>
        <_>
          <internalNodes>
            0 -1 227 -1057042738 -262742563 -21069826 -794633570
            -185442660 -6372327 -17777666 -230621186</internalNodes>
          <leafValues>
            -3.7569063901901245e-01 2.5168597698211670e-01</leafValues></_>
        <_>
          <internalNodes>
            0 -1 25 -20774926 -1907068 -302842059 -3268510 -1249509389
            -4813129 -308183361 -1087673</internalNodes>
          <leafValues>
            -2.2691915929317474e-01 3.9223861694335938e-01</leafValues></_>
        <_>
          <internalNodes>
            0 -1 163 -268440022 11204046 -490477536 -322576254
            1475573573 623064641 -109314816 -476713045</internalNodes>
          <leafValues>
            -3.5416758060455322e-01 2.2094434499740601e-01</leafValues></_>
        <_>
          <internalNodes>
            0 -1 18 -623908338 -22035220 -258803586 -1293491574
            1078444100 1588150386 -230230309 -168037285</internalNodes>
          <leafValues>
            -3.3064493536949158e-01 2.3776473104953766e-01</leafValues></_>
        <_>
          <internalNodes>
            0 -1 260 -1346372607 -1164465281 -1486416353 -1208231853
            606999552 -1096057965 -1425826037 -1359030057</internalNodes>
          <leafValues>
            -3.4280571341514587e-01 1.8128287792205811e-01</leafValues></_>
        <_>
          <internalNodes>
            0 -1 97 -1002116400 -204737874 1145369600 -976360498
            2146806294 -1400602486 1996601619 -1922048293</internalNodes>
          <leafValues>
            -4.2636981606483459e-01 1.9635841250419617e-01</leafValues></_>
        <_>
          <internalNodes>
            0 -1 149 83103093 2142651893 536475515 -61579 1307787257
            -268469505 -306434049 -1073774721</internalNodes>
          <leafValues>
            -2.3260720074176788e-01 3.2411500811576843e-01</leafValues></_>
        <_>
          <internalNodes>
            0 -1 0 -1349783553 -2144693334 1945096695 -1599684548
            -1944591489 1305726794 -1090792267 -704649225</internalNodes>
          <leafValues>
            -2.4490922689437866e-01 2.7567571401596069e-01</leafValues></_>
        <_>
          <internalNodes>
            0 -1 105 1060339505 -235604512 -69744457 -136851329
            -1919057924 -17581924 -1128301323 -570444300</internalNodes>
          <leafValues>
            -2.7555432915687561e-01 2.2803252935409546e-01</leafValues></_>
        <_>
          <internalNodes>
            0 -1 247 -151568553 -592621425 -92933338 1920135006
            -878719612 -924006689 -939531328 -228393228</internalNodes>
          <leafValues>
            -2.7073663473129272e-01 2.3260013759136200e-01</leafValues></_>
        <_>
          <internalNodes>
            0 -1 133 -790433361 826128774 -527174705 -34832178
            1953515773 -69508865 -232179985 -53189908</internalNodes>
          <leafValues>
            -2.3838169872760773e-01 2.6152846217155457e-01</leafValues></_>
        <_>
          <internalNodes>
            0 -1 211 -921705312 1191215376 -1645878351 -1526598208
            -1910516310 470012723 -276975617 -1886396517</internalNodes>
          <leafValues>
            -2.4519112706184387e-01 2.5373214483261108e-01</leafValues></_>
        <_>
          <internalNodes>
            0 -1 191 1616355070 -784744485 -1076003394 -1918369793
            8209877 -1852049659 -503462712 -2003828785</internalNodes>
          <leafValues>
            -2.0568859577178955e-01 2.6992276310920715e-01</leafValues></_>
        <_>
          <internalNodes>
            0 -1 11 -296072089 740418520 -357114230 1757601748 -21555436
            1261729759 -2065277696 -185270471</internalNodes>
          <leafValues>
            -3.9161616563796997e-01 1.3464497029781342e-01</leafValues></_>
        <_>
          <internalNodes>
            0 -1 68 -807207029 -53215401 722277900 -357580882
            -1033110595 -934431772 525550356 1276854276</internalNodes>
          <leafValues>
            -3.2915133237838745e-01 1.7287826538085938e-01</leafValues></_>
        <_>
          <internalNodes>
            0 -1 232 -335586283 448434811 917978141 71736189 1828665616
            -816907973 -1334989824 -1465258289</internalNodes>
          <leafValues>
            -3.0548852682113647e-01 1.8252027034759521e-01</leafValues></_>
        <_>
          <internalNodes>
            0 -1 88 997817847 -191528961 1053155995 805173691 -296427828
            -186609688 -552138421 1338985039</internalNodes>
          <leafValues>
            -1.8979004025459290e-01 3.0060338973999023e-01</leafValues></_>
        <_>
          <internalNodes>
            0 -1 175 104872308 464672093 -1275192835 -1074029731
            -304269315 -1345609991 -42918532 -1092081044</internalNodes>
          <leafValues>
            -3.0239149928092957e-01 1.8111176788806915e-01</leafValues></_>
        <_>
          <internalNodes>
            0 -1 268 -406323289 -2094666614 -1875773766 -858667276
            790580187 -1909854951 1242449169 1182053364</internalNodes>
          <leafValues>
            -3.2621148228645325e-01 1.6684043407440186e-01</leafValues></_>
        <_>
          <internalNodes>
            0 -1 45 -801331712 -1061285330 1077943956 281340891
            -1590444719 -818874870 -1075851511 -29774178</internalNodes>
          <leafValues>
            -4.4276145100593567e-01 1.1179232597351074e-01</leafValues></_>
        <_>
          <internalNodes>
            0 -1 116 1557325736 944813642 -811686194 823981051
            -1110315059 -1251363431 -1692536960 550297800</internalNodes>
          <leafValues>
            -3.6554792523384094e-01 1.5498189628124237e-01</leafValues></_>
        <_>
          <internalNodes>
            0 -1 208 1083688582 1409756450 -2116243518 1202104988
            1909801335 -1267625112 -140017665 -1337962918</internalNodes>
          <leafValues>
            -3.2013040781021118e-01 1.7051595449447632e-01</leafValues></_>
        <_>
          <internalNodes>
            0 -1 234 -1394468507 -1474815411 -1610616961 -1141760035
            -1292365895 -286002593 -1706276387 -1364448099</internalNodes>
          <leafValues>
            -2.9257181286811829e-01 1.8987414240837097e-01</leafValues></_>
        <_>
          <internalNodes>
            0 -1 20 -473969881 1861211119 -322815752 1084438098
            -264511733 1143706171 -1062797978 -799018010</internalNodes>
          <leafValues>
            -3.2238808274269104e-01 1.7060063779354095e-01</leafValues></_></weakClassifiers></_>
    <!-- stage 12 -->
    <_>
      <maxWeakCount>26</maxWeakCount>
      <stageThreshold>-1.6296690702438354e+00</stageThreshold>
      <weakClassifiers>
        <_>
          <internalNodes>
            0 -1 156 -2228225 -2230785 -612893697 -548428173 -261030936
            -539377985 -252190465 -67135045</internalNodes>
          <leafValues>
            -3.9601567387580872e-01 3.4999001026153564e-01</leafValues></_>
        <_>
          <internalNodes>
            0 -1 90 -553989393 -615298377 -886017 -526209 -857813825
            -924956434 -20787489 -12545</internalNodes>
          <leafValues>
            -1.9754748046398163e-01 5.0750803947448730e-01</leafValues></_>
        <_>
          <internalNodes>
            0 -1 233 -35651905 -2107683 -1604855809 -1207960617
            -1102076740 -16067443 778963512 -1358954753</internalNodes>
          <leafValues>
            -2.7540996670722961e-01 2.9828292131423950e-01</leafValues></_>
        <_>
          <internalNodes>
            0 -1 9 -487928114 855615443 -355815534 1397184511 -193530540
            -158134264 -145817793 -136355853</internalNodes>
          <leafValues>
            -3.1420150399208069e-01 2.3922638595104218e-01</leafValues></_>
        <_>
          <internalNodes>
            0 -1 33 -67381272 -1024786966 -1109721665 -273818129
            1058995460 1145097670 -80483473 1333787611</internalNodes>
          <leafValues>
            -2.8859212994575500e-01 2.3543931543827057e-01</leafValues></_>
        <_>
          <internalNodes>
            0 -1 145 1131816879 -220778579 -19716951 -578165364 13264894
            -689932836 -1059835447 -5429728</internalNodes>
          <leafValues>
            -3.2779473066329956e-01 2.0878189802169800e-01</leafValues></_>
        <_>
          <internalNodes>
            0 -1 141 -833436401 -138479185 -543731201 -1111294977
            1011870639 -635246930 -73958001 -1426395634</internalNodes>
          <leafValues>
            -2.7145740389823914e-01 2.3649661242961884e-01</leafValues></_>
        <_>
          <internalNodes>
            0 -1 60 -1912549456 -57790732 -131265 -2739648 -1393312327
            -67108865 -1096712449 -4512427</internalNodes>
          <leafValues>
            -2.0400768518447876e-01 2.8311198949813843e-01</leafValues></_>
        <_>
          <internalNodes>
            0 -1 267 -952372301 -1576338846 1511252208 -1447502183
            75092913 -909927261 1411372501 -843915803</internalNodes>
          <leafValues>
            -2.6737517118453979e-01 2.1347360312938690e-01</leafValues></_>
        <_>
          <internalNodes>
            0 -1 189 -17107276 -76393097 -686631944 -123405 -386310188
            -83686367 -51313624 201263339</internalNodes>
          <leafValues>
            -2.6845663785934448e-01 2.2796356678009033e-01</leafValues></_>
        <_>
          <internalNodes>
            0 -1 69 -430441017 -1497110242 -151019378 -461708754
            -1649156225 -1119198593 1365726721 -696785564</internalNodes>
          <leafValues>
            -3.0740401148796082e-01 1.8073406815528870e-01</leafValues></_>
        <_>
          <internalNodes>
            0 -1 95 21924493 -1611521850 293691823 -101787187
            -1447432241 623080123 -15996276 1372343180</internalNodes>
          <leafValues>
            -2.9126214981079102e-01 2.0560002326965332e-01</leafValues></_>
        <_>
          <internalNodes>
            0 -1 194 -4393996 -197885584 -1933835619 -1461311623
            -181209357 1946714644 255299071 210724599</internalNodes>
          <leafValues>
            -3.0658930540084839e-01 1.8802648782730103e-01</leafValues></_>
        <_>
          <internalNodes>
            0 -1 265 782564727 -459901084 -1211907273 -287256907
            920074229 362012071 -193890540 -176769131</internalNodes>
          <leafValues>
            -3.1450316309928894e-01 1.7518217861652374e-01</leafValues></_>
        <_>
          <internalNodes>
            0 -1 70 1085031186 -2139199241 2073893183 -268883073
            -908919822 -844068443 -4309247 1505968661</internalNodes>
          <leafValues>
            -3.0771133303642273e-01 1.7595522105693817e-01</leafValues></_>
        <_>
          <internalNodes>
            0 -1 102 875421301 -856767906 -733676308 -856756657
            2004341616 -143134916 1161131329 -1355821557</internalNodes>
          <leafValues>
            -2.3201960325241089e-01 2.3608762025833130e-01</leafValues></_>
        <_>
          <internalNodes>
            0 -1 63 -630427808 -159056976 -1980417 -17257124 229716636
            784333647 -136818705 2145324549</internalNodes>
          <leafValues>
            -2.7739116549491882e-01 1.9338078796863556e-01</leafValues></_>
        <_>
          <internalNodes>
            0 -1 238 16649812 2135361885 -105647592 -80060549 -4975676
            -68361766 -274794568 -626910304</internalNodes>
          <leafValues>
            -3.0433887243270874e-01 1.7703050374984741e-01</leafValues></_>
        <_>
          <internalNodes>
            0 -1 176 4195664 751715699 494615103 800352090 1514552357
            2010627295 1813594016 618927396</internalNodes>
          <leafValues>
            -5.9699511528015137e-01 8.1668607890605927e-02</leafValues></_>
        <_>
          <internalNodes>
            0 -1 184 -301995473 679239671 -52501334 -1936011866 94717963
            1892245523 -188364004 -118101204</internalNodes>
          <leafValues>
            -2.5844678282737732e-01 2.0512914657592773e-01</leafValues></_>
        <_>
          <internalNodes>
            0 -1 148 -315232830 335888256 -549369922 932439437
            -1277435448 637554873 -353834870 639374</internalNodes>
          <leafValues>
            -3.1206843256950378e-01 1.7037045955657959e-01</leafValues></_>
        <_>
          <internalNodes>
            0 -1 65 740982330 -1459686960 -357574212 -117778824
            -332489420 -1275072287 -1896099368 -1359845404</internalNodes>
          <leafValues>
            -3.5414332151412964e-01 1.4674189686775208e-01</leafValues></_>
        <_>
          <internalNodes>
            0 -1 43 2136338427 -889412894 1804980093 155788035
            1431697915 1038248318 1811143672 1539270395</internalNodes>
          <leafValues>
            -2.1938253939151764e-01 2.3730260133743286e-01</leafValues></_>
        <_>
          <internalNodes>
            0 -1 136 -396496400 -187827764 635342558 -1345461650
            -1312872535 -201019136 -1343262191 539603776</internalNodes>
          <leafValues>
            -3.5113921761512756e-01 1.5167795121669769e-01</leafValues></_>
        <_>
          <internalNodes>
            0 -1 71 -898179026 -234286857 -130833250 -1200458134
            533157190 1449497668 1517736202 -29360365</internalNodes>
          <leafValues>
            -2.6068872213363647e-01 1.9964776933193207e-01</leafValues></_>
        <_>
          <internalNodes>
            0 -1 218 1659502692 1538600021 -934098722 576005585
            -199096491 -22308645 -287068193 -1343148484</internalNodes>
          <leafValues>
            -3.5253638029098511e-01 1.5629105269908905e-01</leafValues></_></weakClassifiers></_>
    <!-- stage 13 -->
    <_>
      <maxWeakCount>29</maxWeakCount>
      <stageThreshold>-1.4907243251800537e+00</stageThreshold>
      <weakClassifiers>
        <_>
          <internalNodes>
            0 -1 98 -1 -705628940 -793784221 -705305132 -536874497
            -657530117 -2068846385 -705692433</internalNodes>
          <leafValues>
            -3.8437369465827942e-01 3.3618757128715515e-01</leafValues></_>
        <_>
          <internalNodes>
            0 -1 83 825438480 1067446433 -1119145727 -6291693 1583971773
            -1080035105 495743294 -1108345870</internalNodes>
          <leafValues>
            -3.5327640175819397e-01 2.4787761270999908e-01</leafValues></_>
        <_>
          <internalNodes>
            0 -1 22 -282132481 -1360868126 -877183361 -320821136
            -555485185 199098349 -137373185 -134228737</internalNodes>
          <leafValues>
            -2.3134125769138336e-01 3.5064464807510376e-01</leafValues></_>
        <_>
          <internalNodes>
            0 -1 173 -709560356 -246787 -1082130465 -49153 -71516164
            -618498 -6307841 -1077997909</internalNodes>
          <leafValues>
            -1.7528563737869263e-01 4.2022547125816345e-01</leafValues></_>
        <_>
          <internalNodes>
            0 -1 111 1352676722 -204333377 893351739 2146904767
            440167163 -2623861 2146860987 2146636599</internalNodes>
          <leafValues>
            -2.3923631012439728e-01 2.8006967902183533e-01</leafValues></_>
        <_>
          <internalNodes>
            0 -1 254 -1499267280 -2018838179 -1653949355 -1342310168
            -204641289 -2103451135 -1446251883 -1346371861</internalNodes>
          <leafValues>
            -3.3107882738113403e-01 2.2237914800643921e-01</leafValues></_>
        <_>
          <internalNodes>
            0 -1 55 -18890033 -36975164 -788964610 -1036061585
            -612659441 1765747999 -726732918 -260833313</internalNodes>
          <leafValues>
            -3.1284061074256897e-01 1.7495784163475037e-01</leafValues></_>
        <_>
          <internalNodes>
            0 -1 252 -589379492 -592704867 -84017605 -1650601633
            -285803516 -67125251 -98136952 -1465197573</internalNodes>
          <leafValues>
            -2.2496458888053894e-01 2.6567557454109192e-01</leafValues></_>
        <_>
          <internalNodes>
            0 -1 167 -1426608640 -2072578121 -1496447226 -286152969
            -1569257643 -1028515513 -99373291 -935389929</internalNodes>
          <leafValues>
            -3.6218309402465820e-01 1.5362338721752167e-01</leafValues></_>
        <_>
          <internalNodes>
            0 -1 109 1593461454 -209721714 788302956 -13906170 6292516
            -50576258 -921907282 -538220721</internalNodes>
          <leafValues>
            -2.2307184338569641e-01 2.4653932452201843e-01</leafValues></_>
        <_>
          <internalNodes>
            0 -1 237 140660308 934711313 800521075 868047693 -89240098
            -46471429 -1159942500 -1074087466</internalNodes>
          <leafValues>
            -3.2763820886611938e-01 1.5451544523239136e-01</leafValues></_>
        <_>
          <internalNodes>
            0 -1 112 -1368486827 -1390612899 -134923915 338706304
            -307628801 -19400118 -1124358128 -1162289188</internalNodes>
          <leafValues>
            -3.1051585078239441e-01 1.7452368140220642e-01</leafValues></_>
        <_>
          <internalNodes>
            0 -1 140 -332400636 2987686 -1517826115 -844117601
            -217071849 -1258002458 -349249493 688783119</internalNodes>
          <leafValues>
            -2.9772824048995972e-01 1.7802710831165314e-01</leafValues></_>
        <_>
          <internalNodes>
            0 -1 26 -386642196 116139809 -1789410674 -1851850107
            1716656432 161440171 2143439716 -216565033</internalNodes>
          <leafValues>
            -3.0626600980758667e-01 1.7087009549140930e-01</leafValues></_>
        <_>
          <internalNodes>
            0 -1 157 -763220436 1012788965 -657871196 -1748849941
            569004477 -101161989 1615025412 1090273316</internalNodes>
          <leafValues>
            -4.5972532033920288e-01 9.6153244376182556e-02</leafValues></_>
        <_>
          <internalNodes>
            0 -1 93 760132927 -1499364131 -808151803 -1546803012
            350271413 -1109861864 -1180882384 -1379618938</internalNodes>
          <leafValues>
            -3.0775249004364014e-01 1.6146028041839600e-01</leafValues></_>
        <_>
          <internalNodes>
            0 -1 230 -939524214 90421578 -797739888 63174130 -201459827
            145279664 1995162048 -892866058</internalNodes>
          <leafValues>
            -2.8203797340393066e-01 1.8225975334644318e-01</leafValues></_>
        <_>
          <internalNodes>
            0 -1 29 -1118670258 -84068466 1295074954 -758478286
            321881860 -1815880144 1539791978 1120095296</internalNodes>
          <leafValues>
            -4.0224176645278931e-01 1.2078907340764999e-01</leafValues></_>
        <_>
          <internalNodes>
            0 -1 177 114587940 -1392581851 -589857323 -279552041
            251030909 -168289057 1306073676 783629408</internalNodes>
          <leafValues>
            -3.6909607052803040e-01 1.3114817440509796e-01</leafValues></_>
        <_>
          <internalNodes>
            0 -1 221 -50602544 1552481176 -1230801912 1232373036
            -124275558 437132088 -1544718720 134272874</internalNodes>
          <leafValues>
            -3.6143627762794495e-01 1.2617400288581848e-01</leafValues></_>
        <_>
          <internalNodes>
            0 -1 258 -1648931839 686244925 -1092774306 733622775
            -1870702588 1814881366 -94670284 -222761089</internalNodes>
          <leafValues>
            -2.8091853857040405e-01 1.6369484364986420e-01</leafValues></_>
        <_>
          <internalNodes>
            0 -1 78 -2105004236 1808022812 -1287665675 -138625052
            432848369 803074493 -219693589 803345461</internalNodes>
          <leafValues>
            -2.9190745949745178e-01 1.6689699888229370e-01</leafValues></_>
        <_>
          <internalNodes>
            0 -1 127 -205616028 -1829237076 -2126125014 200802338
            -661356048 -864807364 166795756 -943783701</internalNodes>
          <leafValues>
            -2.4394829571247101e-01 1.9504120945930481e-01</leafValues></_>
        <_>
          <internalNodes>
            0 -1 242 -347084117 704692491 1171192480 -2144207518
            -2017474797 251375543 -1556159408 -1002071786</internalNodes>
          <leafValues>
            -3.7570625543594360e-01 1.3427488505840302e-01</leafValues></_>
        <_>
          <internalNodes>
            0 -1 24 -1459836304 -1026117921 608515903 147794555
            1703883313 1248547913 -67166709 -585160418</internalNodes>
          <leafValues>
            -3.5606300830841064e-01 1.3581366837024689e-01</leafValues></_>
        <_>
          <internalNodes>
            0 -1 147 665504204 -1971694862 -10500955 -35902732 -74855355
            -1326732118 -1783817583 -34919445</internalNodes>
          <leafValues>
            -2.2984109818935394e-01 2.1485458314418793e-01</leafValues></_>
        <_>
          <internalNodes>
            0 -1 171 37755180 -1280000641 970735607 2079644339
            1641301437 -1092674241 -1729937489 -1421927757</internalNodes>
          <leafValues>
            -2.1125431358814240e-01 2.2764362394809723e-01</leafValues></_>
        <_>
          <internalNodes>
            0 -1 219 -494941177 -1092115 -51970052 819652999 -864164011
            -1242080235 -119799969 -1073494209</internalNodes>
          <leafValues>
            -2.0784379541873932e-01 2.4574540555477142e-01</leafValues></_>
        <_>
          <internalNodes>
            0 -1 49 -353500044 -2099940770 1854282684 -696376836
            -576437699 -1119137365 -628209808 -241152743</internalNodes>
          <leafValues>
            -3.5011246800422668e-01 1.3979379832744598e-01</leafValues></_></weakClassifiers></_>
    <!-- stage 14 -->
    <_>
      <maxWeakCount>31</maxWeakCount>
      <stageThreshold>-1.5043042898178101e+00</stageThreshold>
      <weakClassifiers>
        <_>
          <internalNodes>
            0 -1 67 -740296705 -715817 2034589695 -2098177 -1164535553
            -75496977 2071145423 -12303545</internalNodes>
          <leafValues>
            -3.8751256465911865e-01 3.2264450192451477e-01</leafValues></_>
        <_>
          <internalNodes>
            0 -1 179 -134219777 -137 -2099329 -15377 -4194305 -1064978
            -201326609 -269486329</internalNodes>
          <leafValues>
            -1.6876052320003510e-01 5.5997103452682495e-01</leafValues></_>
        <_>
          <internalNodes>
            0 -1 54 -92290305 -220477933 1915908863 -260707089
            -998522705 -857782673 -77340961 -289</internalNodes>
          <leafValues>
            -2.1325194835662842e-01 3.5278660058975220e-01</leafValues></_>
        <_>
          <internalNodes>
            0 -1 118 -720053297 -613301815 -650076788 -641932860
            -711656979 -111973214 -1306397272 -18023444</internalNodes>
          <leafValues>
            -2.9707375168800354e-01 2.3387832939624786e-01</leafValues></_>
        <_>
          <internalNodes>
            0 -1 207 1439168460 1414591484 1001115534 -6311520
            1425828345 -192621954 -1077952514 -237438274</internalNodes>
          <leafValues>
            -3.1598165631294250e-01 1.9153435528278351e-01</leafValues></_>
        <_>
          <internalNodes>
            0 -1 198 -8666335 -1995449451 -50367183 -106692693
            -1363165205 -1429475553 -706764671 -808715073</internalNodes>
          <leafValues>
            -1.8833971023559570e-01 2.8326055407524109e-01</leafValues></_>
        <_>
          <internalNodes>
            0 -1 72 1881333246 -696376737 -1123532934 1595052698
            286646232 1194738382 821256918 1398231617</internalNodes>
          <leafValues>
            -3.4974366426467896e-01 1.2960860133171082e-01</leafValues></_>
        <_>
          <internalNodes>
            0 -1 239 653002314 1660062531 1356993247 1518489354
            1723685204 -110124753 -54871308 -232587310</internalNodes>
          <leafValues>
            -3.3335444331169128e-01 1.7997112870216370e-01</leafValues></_>
        <_>
          <internalNodes>
            0 -1 46 -1093506096 -2037980 -36622979 -168246208 482632304
            -1074835993 -1616025219 1872045877</internalNodes>
          <leafValues>
            -2.9215881228446960e-01 1.7179730534553528e-01</leafValues></_>
        <_>
          <internalNodes>
            0 -1 1 -1367359249 12257997 -553963545 -1624438993
            -1359231021 -1376258049 -1807755955 -811868193</internalNodes>
          <leafValues>
            -1.7240329086780548e-01 3.0196234583854675e-01</leafValues></_>
        <_>
          <internalNodes>
            0 -1 6 -2134839552 -2005211489 1724038086 12866747 829792325
            -57500877 -3703232 -688128294</internalNodes>
          <leafValues>
            -4.6354290843009949e-01 9.8378874361515045e-02</leafValues></_>
        <_>
          <internalNodes>
            0 -1 210 -906762620 -1324231420 -1451235376 -239996495
            -1073756020 -374103760 -1342352401 -1413742705</internalNodes>
          <leafValues>
            -1.6931523382663727e-01 2.9313161969184875e-01</leafValues></_>
        <_>
          <internalNodes>
            0 -1 132 -870447739 -1718979651 1989516965 425183164
            -218107539 -1074564103 -1275744434 -1440186876</internalNodes>
          <leafValues>
            -2.7433907985687256e-01 1.7350608110427856e-01</leafValues></_>
        <_>
          <internalNodes>
            0 -1 259 -493466611 452854807 -966021610 57075239
            -2067855344 1114635291 138872856 -1430733709</internalNodes>
          <leafValues>
            -2.9171663522720337e-01 1.6656860709190369e-01</leafValues></_>
        <_>
          <internalNodes>
            0 -1 106 252395264 -155937805 -402917948 -100812879
            -539510642 -1096698905 -1370556715 -992537260</internalNodes>
          <leafValues>
            -2.8836867213249207e-01 1.6272591054439545e-01</leafValues></_>
        <_>
          <internalNodes>
            0 -1 185 1619126990 -724308274 439477418 -247166648
            1915576955 -58107894 -254023027 -12030632</internalNodes>
          <leafValues>
            -2.4481001496315002e-01 1.9595763087272644e-01</leafValues></_>
        <_>
          <internalNodes>
            0 -1 251 791327504 -2101972737 430372629 -1337008039
            1023738419 -514995070 119944099 -1074085669</internalNodes>
          <leafValues>
            -3.5704210400581360e-01 1.2204194813966751e-01</leafValues></_>
        <_>
          <internalNodes>
            0 -1 144 1334236551 1631682725 -1675699828 -573688689
            1626621645 -1329382877 1590996908 2144359712</internalNodes>
          <leafValues>
            -2.5522050261497498e-01 1.8768279254436493e-01</leafValues></_>
        <_>
          <internalNodes>
            0 -1 229 -143666221 1361180643 627213552 1433656768
            1595775658 -542507085 217404383 -1799618837</internalNodes>
          <leafValues>
            -1.5624554455280304e-01 3.0352014303207397e-01</leafValues></_>
        <_>
          <internalNodes>
            0 -1 17 -353932465 1060988535 -1937913210 274922957
            -604009663 2087841383 -654323884 -63176773</internalNodes>
          <leafValues>
            -2.1359564363956451e-01 2.2463665902614594e-01</leafValues></_>
        <_>
          <internalNodes>
            0 -1 225 1223742752 -1231806547 1569569983 -1242387467
            472955049 -90830145 298157039 151004225</internalNodes>
          <leafValues>
            -3.4345450997352600e-01 1.3075925409793854e-01</leafValues></_>
        <_>
          <internalNodes>
            0 -1 135 543186978 15004471 -34477305 -580401861 1820452341
            12052139 1236497687 -706890601</internalNodes>
          <leafValues>
            -3.5123798251152039e-01 1.3230518996715546e-01</leafValues></_>
        <_>
          <internalNodes>
            0 -1 129 1074759688 511486143 788998383 747620230 -749653965
            -735042268 -295179741 135118359</internalNodes>
          <leafValues>
            -3.5138115286827087e-01 1.2671679258346558e-01</leafValues></_>
        <_>
          <internalNodes>
            0 -1 19 -34385291 -1082209251 -396299753 -11871443
            -566531765 -925685888 -277283589 -469697157</internalNodes>
          <leafValues>
            -1.9750523567199707e-01 2.3667284846305847e-01</leafValues></_>
        <_>
          <internalNodes>
            0 -1 134 -41161234 1352685539 1828285476 -386817826
            1237658497 -555515770 1717775197 926785124</internalNodes>
          <leafValues>
            -2.4189737439155579e-01 2.0263718068599701e-01</leafValues></_>
        <_>
          <internalNodes>
            0 -1 0 -337424901 -1557634262 1055898003 -835980487
            -1894788362 -294653998 1725910037 -102792773</internalNodes>
          <leafValues>
            -1.8400883674621582e-01 2.5180813670158386e-01</leafValues></_>
        <_>
          <internalNodes>
            0 -1 201 583211412 -1498647234 -1208009379 -1757462679
            -185258127 -94513285 905911321 1807477871</internalNodes>
          <leafValues>
            -1.8473799526691437e-01 2.4469545483589172e-01</leafValues></_>
        <_>
          <internalNodes>
            0 -1 188 -1376014810 -1531060547 1221232414 -315770929
            -145491924 -477925555 -277755222 -115901409</internalNodes>
          <leafValues>
            -2.1433916687965393e-01 2.0844714343547821e-01</leafValues></_>
        <_>
          <internalNodes>
            0 -1 212 146697524 957351408 -62506503 -1645022798 160201148
            -1648628835 191369652 197009232</internalNodes>
          <leafValues>
            -3.5281249880790710e-01 1.3027031719684601e-01</leafValues></_>
        <_>
          <internalNodes>
            0 -1 104 1127691298 833926128 197085305 -37376728 934441655
            1424009352 1881618974 1141136735</internalNodes>
          <leafValues>
            -3.0671527981758118e-01 1.4613735675811768e-01</leafValues></_>
        <_>
          <internalNodes>
            0 -1 113 -2013315075 -1141844137 -60374273 2056156638
            439844825 997340019 -608635964 -207052344</internalNodes>
          <leafValues>
            -2.1028837561607361e-01 2.0852987468242645e-01</leafValues></_></weakClassifiers></_></stages>
  <features>
    <_>
      <rect>
        0 0 1 1</rect></_>
    <_>
      <rect>
        0 0 1 3</rect></_>
    <_>
      <rect>
        0 0 2 1</rect></_>
    <_>
      <rect>
        0 0 2 3</rect></_>
    <_>
      <rect>
        0 0 3 2</rect></_>
    <_>
      <rect>
        0 2 3 6</rect></_>
    <_>
      <rect>
        0 2 6 6</rect></_>
    <_>
      <rect>
        0 3 2 3</rect></_>
    <_>
      <rect>
        0 4 2 2</rect></_>
    <_>
      <rect>
        0 4 2 3</rect></_>
    <_>
      <rect>
        0 5 1 1</rect></_>
    <_>
      <rect>
        0 6 1 1</rect></_>
    <_>
      <rect>
        0 8 1 1</rect></_>
    <_>
      <rect>
        0 8 2 3</rect></_>
    <_>
      <rect>
        0 8 2 4</rect></_>
    <_>
      <rect>
        0 10 3 1</rect></_>
    <_>
      <rect>
        0 11 4 3</rect></_>
    <_>
      <rect>
        0 13 1 1</rect></_>
    <_>
      <rect>
        0 13 3 2</rect></_>
    <_>
      <rect>
        0 14 1 2</rect></_>
    <_>
      <rect>
        0 17 2 1</rect></_>
    <_>
      <rect>
        0 17 3 1</rect></_>
    <_>
      <rect>
        1 0 1 1</rect></_>
    <_>
      <rect>
        1 1 3 3</rect></_>
    <_>
      <rect>
        1 1 6 4</rect></_>
    <_>
      <rect>
        1 2 2 1</rect></_>
    <_>
      <rect>
        1 3 1 2</rect></_>
    <_>
      <rect>
        1 4 2 1</rect></_>
    <_>
      <rect>
        1 7 1 1</rect></_>
    <_>
      <rect>
        1 7 3 4</rect></_>
    <_>
      <rect>
        1 9 1 1</rect></_>
    <_>
      <rect>
        1 9 3 1</rect></_>
    <_>
      <rect>
        1 11 3 1</rect></_>
    <_>
      <rect>
        1 11 6 1</rect></_>
    <_>
      <rect>
        1 12 2 1</rect></_>
    <_>
      <rect>
        1 13 2 1</rect></_>
    <_>
      <rect>
        1 14 3 2</rect></_>
    <_>
      <rect>
        1 14 6 2</rect></_>
    <_>
      <rect>
        1 16 2 1</rect></_>
    <_>
      <rect>
        1 17 2 1</rect></_>
    <_>
      <rect>
        1 17 3 1</rect></_>
    <_>
      <rect>
        2 0 1 1</rect></_>
    <_>
      <rect>
        2 0 3 4</rect></_>
    <_>
      <rect>
        2 0 3 5</rect></_>
    <_>
      <rect>
        2 0 5 3</rect></_>
    <_>
      <rect>
        2 1 5 6</rect></_>
    <_>
      <rect>
        2 3 2 1</rect></_>
    <_>
      <rect>
        2 3 3 5</rect></_>
    <_>
      <rect>
        2 5 1 2</rect></_>
    <_>
      <rect>
        2 6 1 1</rect></_>
    <_>
      <rect>
        2 8 1 1</rect></_>
    <_>
      <rect>
        2 9 1 1</rect></_>
    <_>
      <rect>
        2 10 1 1</rect></_>
    <_>
      <rect>
        2 14 2 1</rect></_>
    <_>
      <rect>
        2 14 3 2</rect></_>
    <_>
      <rect>
        2 17 2 1</rect></_>
    <_>
      <rect>
        2 17 3 1</rect></_>
    <_>
      <rect>
        3 0 5 3</rect></_>
    <_>
      <rect>
        3 1 3 3</rect></_>
    <_>
      <rect>
        3 1 5 3</rect></_>
    <_>
      <rect>
        3 2 1 1</rect></_>
    <_>
      <rect>
        3 2 3 5</rect></_>
    <_>
      <rect>
        3 2 5 2</rect></_>
    <_>
      <rect>
        3 3 1 1</rect></_>
    <_>
      <rect>
        3 3 3 4</rect></_>
    <_>
      <rect>
        3 8 1 1</rect></_>
    <_>
      <rect>
        3 9 1 1</rect></_>
    <_>
      <rect>
        3 9 3 1</rect></_>
    <_>
      <rect>
        3 10 3 3</rect></_>
    <_>
      <rect>
        3 11 1 1</rect></_>
    <_>
      <rect>
        3 12 4 2</rect></_>
    <_>
      <rect>
        3 13 1 1</rect></_>
    <_>
      <rect>
        3 13 3 1</rect></_>
    <_>
      <rect>
        3 14 2 2</rect></_>
    <_>
      <rect>
        3 16 1 1</rect></_>
    <_>
      <rect>
        4 0 1 1</rect></_>
    <_>
      <rect>
        4 0 4 3</rect></_>
    <_>
      <rect>
        4 0 5 3</rect></_>
    <_>
      <rect>
        4 1 1 1</rect></_>
    <_>
      <rect>
        4 1 3 4</rect></_>
    <_>
      <rect>
        4 3 2 3</rect></_>
    <_>
      <rect>
        4 3 2 5</rect></_>
    <_>
      <rect>
        4 3 5 2</rect></_>
    <_>
      <rect>
        4 5 2 1</rect></_>
    <_>
      <rect>
        4 5 4 1</rect></_>
    <_>
      <rect>
        4 5 4 5</rect></_>
    <_>
      <rect>
        4 8 1 1</rect></_>
    <_>
      <rect>
        4 8 2 1</rect></_>
    <_>
      <rect>
        4 9 4 2</rect></_>
    <_>
      <rect>
        4 11 2 3</rect></_>
    <_>
      <rect>
        4 14 2 2</rect></_>
    <_>
      <rect>
        5 0 4 3</rect></_>
    <_>
      <rect>
        5 1 4 3</rect></_>
    <_>
      <rect>
        5 1 5 3</rect></_>
    <_>
      <rect>
        5 2 3 6</rect></_>
    <_>
      <rect>
        5 3 4 1</rect></_>
    <_>
      <rect>
        5 3 4 4</rect></_>
    <_>
      <rect>
        5 3 4 5</rect></_>
    <_>
      <rect>
        5 4 2 4</rect></_>
    <_>
      <rect>
        5 4 4 1</rect></_>
    <_>
      <rect>
        5 5 1 1</rect></_>
    <_>
      <rect>
        5 5 2 1</rect></_>
    <_>
      <rect>
        5 5 5 5</rect></_>
    <_>
      <rect>
        5 6 1 1</rect></_>
    <_>
      <rect>
        5 6 2 2</rect></_>
    <_>
      <rect>
        5 7 1 1</rect></_>
    <_>
      <rect>
        5 8 1 1</rect></_>
    <_>
      <rect>
        5 8 2 2</rect></_>
    <_>
      <rect>
        5 9 2 1</rect></_>
    <_>
      <rect>
        5 11 2 1</rect></_>
    <_>
      <rect>
        5 11 2 2</rect></_>
    <_>
      <rect>
        5 14 3 1</rect></_>
    <_>
      <rect>
        6 0 1 1</rect></_>
    <_>
      <rect>
        6 0 3 1</rect></_>
    <_>
      <rect>
        6 0 3 5</rect></_>
    <_>
      <rect>
        6 1 1 1</rect></_>
    <_>
      <rect>
        6 1 2 2</rect></_>
    <_>
      <rect>
        6 1 3 2</rect></_>
    <_>
      <rect>
        6 2 3 1</rect></_>
    <_>
      <rect>
        6 2 3 6</rect></_>
    <_>
      <rect>
        6 2 4 5</rect></_>
    <_>
      <rect>
        6 3 3 1</rect></_>
    <_>
      <rect>
        6 4 2 1</rect></_>
    <_>
      <rect>
        6 4 3 1</rect></_>
    <_>
      <rect>
        6 5 4 1</rect></_>
    <_>
      <rect>
        6 8 2 1</rect></_>
    <_>
      <rect>
        6 8 3 2</rect></_>
    <_>
      <rect>
        6 9 1 2</rect></_>
    <_>
      <rect>
        6 11 4 2</rect></_>
    <_>
      <rect>
        6 12 4 2</rect></_>
    <_>
      <rect>
        7 0 1 1</rect></_>
    <_>
      <rect>
        7 0 1 2</rect></_>
    <_>
      <rect>
        7 1 1 1</rect></_>
    <_>
      <rect>
        7 3 3 1</rect></_>
    <_>
      <rect>
        7 5 2 3</rect></_>
    <_>
      <rect>
        7 6 1 1</rect></_>
    <_>
      <rect>
        7 8 3 2</rect></_>
    <_>
      <rect>
        7 9 2 1</rect></_>
    <_>
      <rect>
        7 10 1 1</rect></_>
    <_>
      <rect>
        7 13 1 1</rect></_>
    <_>
      <rect>
        7 13 4 2</rect></_>
    <_>
      <rect>
        8 0 1 2</rect></_>
    <_>
      <rect>
        8 0 3 3</rect></_>
    <_>
      <rect>
        8 3 1 1</rect></_>
    <_>
      <rect>
        8 3 3 1</rect></_>
    <_>
      <rect>
        8 3 3 2</rect></_>
    <_>
      <rect>
        8 5 2 2</rect></_>
    <_>
      <rect>
        8 8 1 1</rect></_>
    <_>
      <rect>
        8 10 3 1</rect></_>
    <_>
      <rect>
        8 11 1 1</rect></_>
    <_>
      <rect>
        8 13 1 1</rect></_>
    <_>
      <rect>
        8 13 3 2</rect></_>
    <_>
      <rect>
        8 14 1 1</rect></_>
    <_>
      <rect>
        8 14 1 2</rect></_>
    <_>
      <rect>
        8 14 4 2</rect></_>
    <_>
      <rect>
        8 15 1 1</rect></_>
    <_>
      <rect>
        9 1 3 5</rect></_>
    <_>
      <rect>
        9 2 2 2</rect></_>
    <_>
      <rect>
        9 2 2 4</rect></_>
    <_>
      <rect>
        9 2 3 5</rect></_>
    <_>
      <rect>
        9 3 1 1</rect></_>
    <_>
      <rect>
        9 4 1 1</rect></_>
    <_>
      <rect>
        9 4 2 1</rect></_>
    <_>
      <rect>
        9 5 1 1</rect></_>
    <_>
      <rect>
        9 6 1 1</rect></_>
    <_>
      <rect>
        9 6 1 2</rect></_>
    <_>
      <rect>
        9 6 2 1</rect></_>
    <_>
      <rect>
        9 7 1 1</rect></_>
    <_>
      <rect>
        9 9 1 1</rect></_>
    <_>
      <rect>
        9 9 2 1</rect></_>
    <_>
      <rect>
        9 9 3 1</rect></_>
    <_>
      <rect>
        9 11 1 1</rect></_>
    <_>
      <rect>
        9 12 1 1</rect></_>
    <_>
      <rect>
        9 13 1 1</rect></_>
    <_>
      <rect>
        9 14 1 1</rect></_>
    <_>
      <rect>
        9 15 1 1</rect></_>
    <_>
      <rect>
        9 16 1 1</rect></_>
    <_>
      <rect>
        9 17 1 1</rect></_>
    <_>
      <rect>
        10 0 1 1</rect></_>
    <_>
      <rect>
        10 0 1 2</rect></_>
    <_>
      <rect>
        10 0 2 3</rect></_>
    <_>
      <rect>
        10 1 3 4</rect></_>
    <_>
      <rect>
        10 3 3 2</rect></_>
    <_>
      <rect>
        10 4 2 5</rect></_>
    <_>
      <rect>
        10 5 1 1</rect></_>
    <_>
      <rect>
        10 5 2 1</rect></_>
    <_>
      <rect>
        10 6 1 1</rect></_>
    <_>
      <rect>
        10 6 2 2</rect></_>
    <_>
      <rect>
        10 7 1 1</rect></_>
    <_>
      <rect>
        10 7 1 2</rect></_>
    <_>
      <rect>
        10 8 3 4</rect></_>
    <_>
      <rect>
        10 9 2 1</rect></_>
    <_>
      <rect>
        10 10 2 1</rect></_>
    <_>
      <rect>
        10 10 2 2</rect></_>
    <_>
      <rect>
        10 11 2 2</rect></_>
    <_>
      <rect>
        10 12 1 1</rect></_>
    <_>
      <rect>
        10 12 1 2</rect></_>
    <_>
      <rect>
        10 15 1 1</rect></_>
    <_>
      <rect>
        10 17 3 1</rect></_>
    <_>
      <rect>
        11 0 1 2</rect></_>
    <_>
      <rect>
        11 1 1 1</rect></_>
    <_>
      <rect>
        11 1 3 1</rect></_>
    <_>
      <rect>
        11 2 3 3</rect></_>
    <_>
      <rect>
        11 3 2 4</rect></_>
    <_>
      <rect>
        11 3 3 3</rect></_>
    <_>
      <rect>
        11 3 3 5</rect></_>
    <_>
      <rect>
        11 4 2 2</rect></_>
    <_>
      <rect>
        11 6 3 2</rect></_>
    <_>
      <rect>
        11 7 2 1</rect></_>
    <_>
      <rect>
        11 9 3 1</rect></_>
    <_>
      <rect>
        11 11 2 1</rect></_>
    <_>
      <rect>
        11 14 2 2</rect></_>
    <_>
      <rect>
        11 15 1 1</rect></_>
    <_>
      <rect>
        11 15 2 1</rect></_>
    <_>
      <rect>
        12 1 1 1</rect></_>
    <_>
      <rect>
        12 2 1 1</rect></_>
    <_>
      <rect>
        12 2 2 5</rect></_>
    <_>
      <rect>
        12 3 2 5</rect></_>
    <_>
      <rect>
        12 6 1 1</rect></_>
    <_>
      <rect>
        12 8 1 1</rect></_>
    <_>
      <rect>
        12 8 2 1</rect></_>
    <_>
      <rect>
        12 11 2 2</rect></_>
    <_>
      <rect>
        12 12 1 2</rect></_>
    <_>
      <rect>
        12 17 1 1</rect></_>
    <_>
      <rect>
        12 17 2 1</rect></_>
    <_>
      <rect>
        13 2 1 1</rect></_>
    <_>
      <rect>
        13 6 1 1</rect></_>
    <_>
      <rect>
        13 8 1 1</rect></_>
    <_>
      <rect>
        13 11 2 3</rect></_>
    <_>
      <rect>
        13 14 2 2</rect></_>
    <_>
      <rect>
        13 15 2 1</rect></_>
    <_>
      <rect>
        13 17 2 1</rect></_>
    <_>
      <rect>
        14 0 2 1</rect></_>
    <_>
      <rect>
        14 0 2 3</rect></_>
    <_>
      <rect>
        14 1 1 1</rect></_>
    <_>
      <rect>
        14 2 1 1</rect></_>
    <_>
      <rect>
        14 2 2 6</rect></_>
    <_>
      <rect>
        14 7 1 1</rect></_>
    <_>
      <rect>
        14 8 1 1</rect></_>
    <_>
      <rect>
        14 9 1 1</rect></_>
    <_>
      <rect>
        14 11 2 1</rect></_>
    <_>
      <rect>
        14 14 2 2</rect></_>
    <_>
      <rect>
        14 17 2 1</rect></_>
    <_>
      <rect>
        15 0 1 1</rect></_>
    <_>
      <rect>
        15 2 1 1</rect></_>
    <_>
      <rect>
        15 3 1 1</rect></_>
    <_>
      <rect>
        15 9 1 1</rect></_>
    <_>
      <rect>
        15 10 1 1</rect></_>
    <_>
      <rect>
        15 14 1 1</rect></_>
    <_>
      <rect>
        16 0 1 1</rect></_>
    <_>
      <rect>
        16 1 1 3</rect></_>
    <_>
      <rect>
        16 1 1 4</rect></_>
    <_>
      <rect>
        16 2 1 1</rect></_>
    <_>
      <rect>
        16 3 1 1</rect></_>
    <_>
      <rect>
        16 4 1 3</rect></_>
    <_>
      <rect>
        16 9 1 1</rect></_>
    <_>
      <rect>
        16 15 1 1</rect></_>
    <_>
      <rect>
        16 17 1 1</rect></_>
    <_>
      <rect>
        17 0 1 1</rect></_>
    <_>
      <rect>
        17 2 1 1</rect></_>
    <_>
      <rect>
        17 2 1 2</rect></_>
    <_>
      <rect>
        17 2 1 3</rect></_>
    <_>
      <rect>
        17 4 1 2</rect></_>
    <_>
      <rect>
        17 7 1 1</rect></_>
    <_>
      <rect>
        17 8 1 1</rect></_>
    <_>
      <rect>
        17 9 1 1</rect></_>
    <_>
      <rect>
        17 10 1 1</rect></_>
    <_>
      <rect>
        17 12 1 2</rect></_>
    <_>
      <rect>
        17 17 1 1</rect></_></features></cascade>
</opencv_storage>
